%YAML:1.0
my_svm: !!opencv-ml-svm
   svm_type: C_SVC
   kernel: { type:RBF, gamma:1. }
   C: 1.
   term_criteria: { epsilon:1.1920928955078125e-007, iterations:1000 }
   var_all: 3
   var_count: 3
   class_count: 2
   class_labels: !!opencv-matrix
      rows: 1
      cols: 2
      dt: i
      data: [ 0, 1 ]
   sv_total: 430
   support_vectors:
      - [ 2.20355811e-003, 8.32120717e-001, 9.83786702e-001 ]
      - [ 3.61239049e-003, 9.18319941e-001, 9.74537909e-001 ]
      - [ 5.14765643e-003, 8.75610590e-001, 9.80339527e-001 ]
      - [ 3.16084176e-003, 8.45095932e-001, 9.84985411e-001 ]
      - [ 2.61898316e-003, 7.95856059e-001, 9.86384392e-001 ]
      - [ 2.34805373e-003, 8.20984364e-001, 9.90969181e-001 ]
      - [ 1.95069087e-003, 9.01868403e-001, 9.82225001e-001 ]
      - [ 3.75688612e-003, 8.16273153e-001, 9.77415800e-001 ]
      - [ 3.84719577e-003, 8.65851045e-001, 9.67934966e-001 ]
      - [ 5.25602838e-003, 8.96118820e-001, 9.55543876e-001 ]
      - [ 1.19208882e-003, 8.08099568e-001, 9.87115443e-001 ]
      - [ 3.54014267e-003, 9.43362653e-001, 9.58897471e-001 ]
      - [ 6.14106376e-003, 8.31002057e-001, 9.57452059e-001 ]
      - [ 3.03440797e-003, 8.55484605e-001, 9.59536672e-001 ]
      - [ 2.88991234e-003, 8.10577929e-001, 9.53259349e-001 ]
      - [ 4.02781554e-003, 8.16809654e-001, 9.48968589e-001 ]
      - [ 3.48595693e-003, 8.53218019e-001, 9.16204572e-001 ]
      - [ 5.68951527e-003, 8.90030265e-001, 7.13804066e-001 ]
      - [ 2.58285925e-003, 7.83702970e-001, 4.16801482e-001 ]
      - [ 2.27580592e-003, 8.61970961e-001, 5.85970044e-001 ]
      - [ 1.21015077e-003, 8.68774414e-001, 6.85864627e-001 ]
      - [ 2.42030155e-003, 8.99474859e-001, 4.71262097e-001 ]
      - [ 1.14332158e-002, 9.11484659e-001, 9.87527192e-001 ]
      - [ 3.23308958e-003, 8.84760320e-001, 6.35763168e-001 ]
      - [ 1.28781721e-002, 7.89707422e-001, 6.31874979e-001 ]
      - [ 1.40883233e-002, 9.11688924e-001, 9.79091942e-001 ]
      - [ 6.21331157e-003, 9.20051515e-001, 5.77826738e-001 ]
      - [ 1.67976157e-003, 8.60546947e-001, 5.43523073e-001 ]
      - [ 8.85035668e-004, 9.22924817e-001, 5.21762908e-001 ]
      - [ 2.67316890e-003, 8.46033037e-001, 4.39440668e-001 ]
      - [ 1.77007134e-003, 8.11824739e-001, 7.89725184e-001 ]
      - [ 7.69439153e-003, 9.48194623e-001, 7.00468123e-001 ]
      - [ 5.79788676e-003, 9.23500061e-001, 5.55331767e-001 ]
      - [ 4.47936403e-003, 8.53668571e-001, 5.49832284e-001 ]
      - [ 3.57626658e-003, 8.48482013e-001, 7.37289071e-001 ]
      - [ 2.51061143e-003, 8.02375138e-001, 4.78777796e-001 ]
      - [ 3.54014267e-003, 8.98145497e-001, 4.42167461e-001 ]
      - [ 9.93407425e-003, 8.74916852e-001, 5.65791190e-001 ]
      - [ 2.67316890e-003, 8.46033037e-001, 6.38043642e-001 ]
      - [ 3.82913393e-003, 8.18159342e-001, 9.32472944e-001 ]
      - [ 2.02293857e-003, 8.79656434e-001, 5.60349226e-001 ]
      - [ 4.76835528e-003, 7.94336259e-001, 4.73882079e-001 ]
      - [ 4.65998380e-003, 8.76460910e-001, 5.74383378e-001 ]
      - [ 1.07829859e-002, 8.30319643e-001, 5.57725251e-001 ]
      - [ 1.02953124e-003, 8.98602247e-001, 5.99197328e-001 ]
      - [ 2.13131029e-003, 9.30696368e-001, 6.98159754e-001 ]
      - [ 2.74541671e-003, 8.51769626e-001, 8.74521196e-001 ]
      - [ 4.71416954e-003, 9.14796770e-001, 6.46757364e-001 ]
      - [ 1.42870042e-002, 8.70350957e-001, 5.46845675e-001 ]
      - [ 2.58285925e-003, 8.75383496e-001, 5.76026261e-001 ]
      - [ 1.30046057e-002, 8.76308262e-001, 4.90463197e-001 ]
      - [ 4.02781554e-003, 8.54136348e-001, 5.26746750e-001 ]
      - [ 2.72735488e-003, 9.50807691e-001, 5.00631928e-001 ]
      - [ 1.08371712e-002, 8.75373304e-001, 7.40091860e-001 ]
      - [ 3.54014267e-003, 8.00220668e-001, 4.71705377e-001 ]
      - [ 3.14277969e-003, 7.87185490e-001, 4.86393124e-001 ]
      - [ 6.43005501e-003, 8.88096333e-001, 5.13268590e-001 ]
      - [ 3.63045256e-003, 8.50836873e-001, 5.84283531e-001 ]
      - [ 1.23363137e-002, 8.95385563e-001, 4.48550105e-001 ]
      - [ 6.26749732e-003, 8.41265261e-001, 9.61602807e-001 ]
      - [ 2.43836362e-003, 8.41430008e-001, 8.97342920e-001 ]
      - [ 9.93407331e-004, 8.65885198e-001, 7.30228126e-001 ]
      - [ 5.31021412e-003, 8.81170034e-001, 9.19737279e-001 ]
      - [ 5.97850606e-003, 8.91213536e-001, 7.20357180e-001 ]
      - [ 2.04100064e-003, 9.04849350e-001, 7.21934021e-001 ]
      - [ 5.97850606e-003, 8.27417970e-001, 7.00891554e-001 ]
      - [ 5.36439987e-003, 8.20207953e-001, 7.04827547e-001 ]
      - [ 7.40540074e-003, 8.37922633e-001, 9.68940198e-001 ]
      - [ 4.78641735e-003, 9.30291831e-001, 9.72736239e-001 ]
      - [ 4.58773598e-003, 8.25897753e-001, 9.70363557e-001 ]
      - [ 4.91285091e-003, 9.29271519e-001, 9.49956954e-001 ]
      - [ 6.41199294e-003, 8.94778192e-001, 9.77039278e-001 ]
      - [ 3.54014267e-003, 8.38983417e-001, 6.73991024e-001 ]
      - [ 3.41370911e-003, 8.93402398e-001, 4.73139375e-001 ]
      - [ 2.31192983e-003, 8.07108760e-001, 9.24154341e-001 ]
      - [ 1.87844306e-003, 8.65851045e-001, 9.30872858e-001 ]
      - [ 3.03440797e-003, 9.01263535e-001, 9.23721671e-001 ]
      - [ 4.49742610e-003, 9.06615853e-001, 9.32275474e-001 ]
      - [ 5.43664768e-003, 9.68479693e-001, 2.41995037e-001 ]
      - [ 3.34146130e-003, 8.72597635e-001, 6.01098895e-001 ]
      - [ 1.35464640e-002, 8.51057112e-001, 6.18209481e-001 ]
      - [ 1.45398714e-002, 9.14902866e-001, 5.54044724e-001 ]
      - [ 4.19037277e-003, 9.21275795e-001, 8.85461152e-001 ]
      - [ 1.25349946e-002, 8.81293595e-001, 5.81685007e-001 ]
      - [ 1.41063845e-002, 9.06405270e-001, 6.80253565e-001 ]
      - [ 1.47385532e-002, 8.82469356e-001, 6.72434330e-001 ]
      - [ 8.21818877e-003, 8.78905118e-001, 8.90546739e-001 ]
      - [ 1.23904990e-002, 8.92900050e-001, 6.88512504e-001 ]
      - [ 3.48595693e-003, 9.41168010e-001, 5.93658805e-001 ]
      - [ 2.05906248e-003, 8.20949256e-001, 5.27928233e-001 ]
      - [ 3.28727532e-003, 9.14548814e-001, 7.16348946e-001 ]
      - [ 1.47024291e-002, 8.88835609e-001, 6.60328448e-001 ]
      - [ 2.47448753e-003, 9.05785859e-001, 6.92686141e-001 ]
      - [ 3.52208083e-003, 8.63004386e-001, 7.36713350e-001 ]
      - [ 1.00424457e-002, 8.85625303e-001, 5.91408312e-001 ]
      - [ 6.64679846e-003, 9.07829702e-001, 7.57064581e-001 ]
      - [ 5.14765643e-003, 8.75610590e-001, 7.47907281e-001 ]
      - [ 3.68463830e-003, 8.94425809e-001, 5.66556811e-001 ]
      - [ 9.75345448e-003, 9.20290053e-001, 6.74525142e-001 ]
      - [ 4.64192173e-003, 8.26662600e-001, 4.77399230e-001 ]
      - [ 1.26433664e-003, 7.95856059e-001, 7.91143298e-001 ]
      - [ 2.22162018e-003, 8.76059175e-001, 7.26269841e-001 ]
      - [ 4.78641735e-003, 8.76505375e-001, 8.60485852e-001 ]
      - [ 4.69610747e-003, 8.84005249e-001, 8.56564283e-001 ]
      - [ 1.78632718e-002, 8.21764171e-001, 7.14243352e-001 ]
      - [ 6.10494008e-003, 8.69363785e-001, 9.35325146e-001 ]
      - [ 3.77494819e-003, 7.94589579e-001, 7.56955206e-001 ]
      - [ 1.34019684e-002, 8.93080652e-001, 7.41036952e-001 ]
      - [ 8.88648070e-003, 8.54592264e-001, 8.43641520e-001 ]
      - [ 4.46130242e-003, 8.60564172e-001, 7.14622378e-001 ]
      - [ 4.62385966e-003, 8.84318233e-001, 6.40760005e-001 ]
      - [ 5.16571850e-003, 9.04499531e-001, 6.44117892e-001 ]
      - [ 1.35103408e-002, 8.78847718e-001, 7.53355503e-001 ]
      - [ 9.86182597e-003, 7.86920607e-001, 7.35924006e-001 ]
      - [ 4.22649691e-003, 7.85928369e-001, 7.09885538e-001 ]
      - [ 1.54790934e-002, 8.86745632e-001, 6.23062968e-001 ]
      - [ 9.78957862e-003, 8.60638797e-001, 7.84667313e-001 ]
      - [ 7.35121453e-003, 8.50836873e-001, 6.43733084e-001 ]
      - [ 3.34146130e-003, 8.30664217e-001, 6.41851544e-001 ]
      - [ 6.66486053e-003, 8.56994152e-001, 6.31964087e-001 ]
      - [ 7.31509086e-003, 8.46145272e-001, 5.88081598e-001 ]
      - [ 3.43177095e-003, 9.11751091e-001, 5.06363928e-001 ]
      - [ 5.50889550e-003, 9.07300174e-001, 6.66673481e-001 ]
      - [ 8.18206463e-003, 8.20899308e-001, 1.75068110e-001 ]
      - [ 6.10494008e-003, 8.69363785e-001, 7.14855254e-001 ]
      - [ 8.10981635e-003, 9.36491787e-001, 8.73534441e-001 ]
      - [ 1.77007134e-003, 8.92363191e-001, 6.28751338e-001 ]
      - [ 6.46617915e-003, 8.80391181e-001, 7.07971752e-001 ]
      - [ 6.14106376e-003, 8.61875057e-001, 6.50147021e-001 ]
      - [ 3.14277969e-003, 8.70477200e-001, 5.69789588e-001 ]
      - [ 7.65826786e-003, 8.58301938e-001, 7.12022901e-001 ]
      - [ 8.27237405e-003, 8.88832092e-001, 7.40187526e-001 ]
      - [ 2.99828406e-003, 8.01996529e-001, 7.49050498e-001 ]
      - [ 1.01327552e-002, 8.76454830e-001, 6.61321640e-001 ]
      - [ 2.00487673e-003, 8.87553096e-001, 7.79938281e-001 ]
      - [ 1.87844306e-003, 8.11603010e-001, 7.62782216e-001 ]
      - [ 5.76176262e-003, 8.23741436e-001, 7.12094069e-001 ]
      - [ 4.55161184e-003, 9.07106876e-001, 7.20832527e-001 ]
      - [ 3.26921348e-003, 8.95633996e-001, 9.52805042e-001 ]
      - [ 5.72563894e-003, 8.49261940e-001, 8.87914658e-001 ]
      - [ 1.87844306e-003, 8.65851045e-001, 9.61047590e-001 ]
      - [ 4.06393921e-003, 9.45065022e-001, 9.91102040e-001 ]
      - [ 1.28239859e-003, 9.23463225e-001, 9.87374246e-001 ]
      - [ 3.63045256e-003, 7.96354294e-001, 9.62475955e-001 ]
      - [ 4.73223161e-003, 8.91549647e-001, 9.65647280e-001 ]
      - [ 2.81766453e-003, 8.76416624e-001, 9.90997672e-001 ]
      - [ 4.10006335e-003, 8.33168268e-001, 9.93916452e-001 ]
      - [ 7.58601993e-004, 8.44680488e-001, 9.91413355e-001 ]
      - [ 1., 5.33472784e-002, 9.74783957e-001 ]
      - [ 1.57138985e-003, 8.59006107e-001, 7.98853099e-001 ]
      - [ 3.28727532e-003, 8.69602323e-001, 8.98802280e-001 ]
      - [ 1.78813329e-003, 9.20312643e-001, 9.17026103e-001 ]
      - [ 9.21159575e-004, 8.00451159e-001, 6.64892256e-001 ]
      - [ 2.69123097e-003, 8.20162117e-001, 5.45437515e-001 ]
      - [ 1.53526594e-003, 9.28115487e-001, 8.51029217e-001 ]
      - [ 9.03097622e-004, 8.04933131e-001, 9.76758838e-001 ]
      - [ 1.33658445e-003, 8.44468355e-001, 8.52641344e-001 ]
      - [ 1.60751375e-003, 7.66388774e-001, 6.42665803e-001 ]
      - [ 1.48108008e-003, 7.89378881e-001, 3.06074381e-001 ]
      - [ 1.91456696e-003, 8.83859634e-001, 5.47023058e-001 ]
      - [ 1.62557571e-003, 8.72597635e-001, 3.24852496e-001 ]
      - [ 1.06565515e-003, 8.98405015e-001, 4.78168815e-001 ]
      - [ 2.20355811e-003, 7.65481591e-001, 7.28663087e-001 ]
      - [ 2.22162018e-003, 9.31319177e-001, 9.35269654e-001 ]
      - [ 1.95069087e-003, 8.45629692e-001, 6.04776144e-001 ]
      - [ 7.89307337e-003, 7.77980328e-001, 5.63217700e-001 ]
      - [ 1.05843041e-002, 8.52441192e-001, 7.59573221e-001 ]
      - [ 3.01634613e-003, 8.19517732e-001, 6.39381528e-001 ]
      - [ 1.36909597e-002, 8.61300051e-001, 7.32714593e-001 ]
      - [ 1.24627473e-002, 8.14240634e-001, 6.59627199e-001 ]
      - [ 2.05906248e-003, 8.96669686e-001, 5.23959816e-001 ]
      - [ 8.70586094e-003, 9.28618073e-001, 6.36339188e-001 ]
      - [ 6.68292225e-004, 8.85490596e-001, 7.01224744e-001 ]
      - [ 1.39077031e-003, 8.35338652e-001, 6.07982099e-001 ]
      - [ 6.37586927e-003, 8.15384746e-001, 6.19355083e-001 ]
      - [ 3.32339923e-003, 8.80139530e-001, 5.84095895e-001 ]
      - [ 4.26262058e-003, 7.93472826e-001, 6.08905375e-001 ]
      - [ 4.15424904e-004, 1., 5.27735233e-001 ]
      - [ 1.57138985e-003, 8.84760320e-001, 6.54781461e-001 ]
      - [ 1.48108008e-003, 7.89378881e-001, 6.45148814e-001 ]
      - [ 6.66486053e-003, 8.56994152e-001, 9.38277841e-001 ]
      - [ 2.58285925e-003, 7.83702970e-001, 6.10085249e-001 ]
      - [ 1.39077031e-003, 9.00776446e-001, 7.54181623e-001 ]
      - [ 2.32999190e-003, 7.81639516e-001, 4.12721574e-001 ]
      - [ 1.53526594e-003, 9.28115487e-001, 5.60602963e-001 ]
      - [ 1.64363766e-003, 8.65112543e-001, 6.87544346e-001 ]
      - [ 8.48911761e-004, 8.84460032e-001, 4.51951355e-001 ]
      - [ 1.84231915e-003, 7.73817122e-001, 5.67042887e-001 ]
      - [ 1.28239859e-003, 8.26405585e-001, 5.99635541e-001 ]
      - [ 2.02293857e-003, 8.79656434e-001, 7.40828514e-001 ]
      - [ 2.74541671e-003, 9.20499265e-001, 8.35768044e-001 ]
      - [ 3.57626658e-003, 9.08232749e-001, 3.32182854e-001 ]
      - [ 3.32339923e-003, 9.45298314e-001, 6.48263514e-001 ]
      - [ 1.09997289e-002, 8.72847319e-001, 6.41695917e-001 ]
      - [ 2.78154062e-003, 8.83744955e-001, 6.96555197e-001 ]
      - [ 3.88331967e-003, 9.16518748e-001, 5.34822106e-001 ]
      - [ 5.25602838e-003, 8.14606249e-001, 7.07706451e-001 ]
      - [ 4.20843484e-003, 8.06331396e-001, 6.12103999e-001 ]
      - [ 8.94066691e-003, 9.06781495e-001, 5.88256717e-001 ]
      - [ 1.32755348e-002, 8.90197158e-001, 4.26229060e-001 ]
      - [ 1.65628102e-002, 8.19491088e-001, 5.62699318e-001 ]
      - [ 1.32394116e-002, 8.06662142e-001, 5.09948134e-001 ]
      - [ 1.70324221e-002, 8.12714875e-001, 6.27304673e-001 ]
      - [ 3.32339923e-003, 8.98588300e-001, 9.98913586e-001 ]
      - [ 1.14874020e-002, 8.19924295e-001, 5.14832437e-001 ]
      - [ 8.65167566e-003, 7.97244966e-001, 9.75091994e-001 ]
      - [ 5.74370101e-003, 8.75437081e-001, 6.01300776e-001 ]
      - [ 2.22703870e-002, 7.73162186e-001, 6.74881041e-001 ]
      - [ 6.05075387e-003, 8.70130002e-001, 4.91556287e-001 ]
      - [ 1.62738189e-002, 8.32131445e-001, 5.68697214e-001 ]
      - [ 1.19028268e-002, 7.95332015e-001, 5.79882264e-001 ]
      - [ 8.81423242e-003, 8.46783578e-001, 6.37382686e-001 ]
      - [ 1.30226677e-002, 7.99794674e-001, 6.28986478e-001 ]
      - [ 1.56777743e-002, 7.99792409e-001, 5.58734238e-001 ]
      - [ 1.58945173e-002, 8.38754475e-001, 6.81940794e-001 ]
      - [ 9.03025389e-001, 1.55774802e-001, 9.59782124e-001 ]
      - [ 4.16508615e-002, 9.06222582e-001, 9.85939205e-001 ]
      - [ 3.16626020e-002, 8.79665136e-001, 9.72463787e-001 ]
      - [ 3.06150094e-002, 9.11340594e-001, 9.22648668e-001 ]
      - [ 2.06809361e-002, 8.92230034e-001, 5.63932061e-001 ]
      - [ 2.69664954e-002, 9.18754578e-001, 6.08270943e-001 ]
      - [ 4.50645722e-002, 8.73427391e-001, 6.05477333e-001 ]
      - [ 2.92603634e-002, 9.52536225e-001, 4.44285303e-001 ]
      - [ 2.56660338e-002, 8.91660810e-001, 5.68558097e-001 ]
      - [ 3.52749936e-002, 8.32479298e-001, 6.94535971e-001 ]
      - [ 2.82308310e-002, 8.94612730e-001, 8.55991602e-001 ]
      - [ 5.38968667e-002, 9.08146083e-001, 6.76607013e-001 ]
      - [ 3.94111797e-002, 8.39152396e-001, 3.99557501e-001 ]
      - [ 7.28257895e-002, 8.66743684e-001, 5.76817572e-001 ]
      - [ 6.09771535e-002, 8.91796410e-001, 5.40291727e-001 ]
      - [ 2.99647786e-002, 8.80854011e-001, 7.04830825e-001 ]
      - [ 5.81775494e-002, 9.05858517e-001, 6.01920784e-001 ]
      - [ 9.22785178e-002, 8.71955514e-001, 5.78271031e-001 ]
      - [ 5.11153266e-002, 9.10366297e-001, 6.25302672e-001 ]
      - [ 4.14160565e-002, 8.73476565e-001, 7.29055285e-001 ]
      - [ 7.02971220e-002, 9.17328596e-001, 8.72152627e-001 ]
      - [ 4.08380739e-002, 8.90086174e-001, 5.48481464e-001 ]
      - [ 5.67506552e-002, 9.22029912e-001, 6.30585611e-001 ]
      - [ 6.31626472e-002, 8.91975284e-001, 5.35618067e-001 ]
      - [ 2.08796170e-002, 9.25959766e-001, 4.29734200e-001 ]
      - [ 4.39627916e-002, 9.11927700e-001, 6.14015937e-001 ]
      - [ 3.97543572e-002, 9.26915765e-001, 4.61817473e-001 ]
      - [ 7.42346272e-002, 7.96546161e-001, 6.48947775e-001 ]
      - [ 3.99711020e-002, 9.05426562e-001, 8.96394551e-001 ]
      - [ 3.00731510e-002, 9.08458829e-001, 8.36285233e-001 ]
      - [ 2.65510697e-002, 8.84875000e-001, 6.00497603e-001 ]
      - [ 6.09410293e-002, 8.82506430e-001, 6.24103189e-001 ]
      - [ 2.82669552e-002, 8.89468312e-001, 9.05724645e-001 ]
      - [ 3.44622061e-002, 8.71879041e-001, 4.14249003e-001 ]
      - [ 5.76898754e-002, 8.43451858e-001, 5.11650860e-001 ]
      - [ 2.03196965e-002, 9.00391042e-001, 8.56211305e-001 ]
      - [ 4.81351018e-002, 8.83635759e-001, 4.94650245e-001 ]
      - [ 4.74306867e-002, 9.04100716e-001, 9.51161087e-001 ]
      - [ 5.36620617e-002, 9.02303874e-001, 9.83730316e-001 ]
      - [ 1.85315628e-002, 9.44501758e-001, 9.87015843e-001 ]
      - [ 4.56244908e-002, 8.82155597e-001, 8.88693988e-001 ]
      - [ 2.89894342e-002, 8.77849400e-001, 8.90762687e-001 ]
      - [ 4.82976623e-002, 8.58569801e-001, 1. ]
      - [ 6.28917217e-002, 9.03732657e-001, 9.90111768e-001 ]
      - [ 3.13374884e-002, 9.13645029e-001, 7.65169084e-001 ]
      - [ 2.33902279e-002, 8.64996910e-001, 9.73978162e-001 ]
      - [ 3.70450653e-002, 8.93382668e-001, 9.97569919e-001 ]
      - [ 1.78813338e-002, 8.79857719e-001, 7.89537251e-001 ]
      - [ 2.56118495e-002, 8.94314528e-001, 9.14239585e-001 ]
      - [ 2.29025558e-002, 8.56065929e-001, 7.71074235e-001 ]
      - [ 1.88566782e-002, 9.42291439e-001, 9.86126482e-001 ]
      - [ 2.86823809e-002, 8.42505455e-001, 9.26426530e-001 ]
      - [ 6.60344958e-002, 8.45242083e-001, 9.95132446e-001 ]
      - [ 2.48351842e-002, 8.91440511e-001, 8.98412645e-001 ]
      - [ 4.93452549e-002, 8.74900043e-001, 9.79703784e-001 ]
      - [ 2.46906895e-002, 9.19308245e-001, 7.76568472e-001 ]
      - [ 5.98392487e-002, 9.12627518e-001, 8.19621146e-001 ]
      - [ 2.98383459e-002, 8.60317588e-001, 9.84228909e-001 ]
      - [ 7.75038376e-002, 8.90087128e-001, 9.73930001e-001 ]
      - [ 6.17899410e-002, 8.82859111e-001, 9.14100647e-001 ]
      - [ 2.28664316e-002, 9.12646711e-001, 9.39595580e-001 ]
      - [ 7.68174827e-002, 8.68209720e-001, 9.80372131e-001 ]
      - [ 5.16210608e-002, 9.37652051e-001, 9.74792361e-001 ]
      - [ 2.01571397e-002, 8.79434347e-001, 9.54760313e-001 ]
      - [ 2.97841597e-002, 9.20585871e-001, 6.83571637e-001 ]
      - [ 2.48532463e-002, 8.67234588e-001, 7.73358941e-001 ]
      - [ 2.05906257e-002, 8.85661185e-001, 9.78855193e-001 ]
      - [ 2.88991239e-002, 8.70398879e-001, 9.63088870e-001 ]
      - [ 2.25413162e-002, 9.05382395e-001, 9.62737799e-001 ]
      - [ 3.73701788e-002, 8.96563470e-001, 9.55458760e-001 ]
      - [ 2.28483696e-002, 8.49025786e-001, 9.72361207e-001 ]
      - [ 2.65691318e-002, 8.65373671e-001, 9.29798722e-001 ]
      - [ 2.60272734e-002, 8.92255664e-001, 9.19477165e-001 ]
      - [ 1.54429693e-002, 8.84419918e-001, 6.45471334e-001 ]
      - [ 1.90734211e-002, 8.36245358e-001, 9.12848115e-001 ]
      - [ 3.95918004e-002, 8.99633288e-001, 9.44347382e-001 ]
      - [ 3.38480994e-002, 9.01728034e-001, 8.96973133e-001 ]
      - [ 2.33541038e-002, 8.70293677e-001, 9.39751565e-001 ]
      - [ 4.10728790e-002, 8.49500299e-001, 9.45355117e-001 ]
      - [ 2.68581230e-002, 9.07829702e-001, 9.26945686e-001 ]
      - [ 2.91700531e-002, 8.28650713e-001, 7.93708980e-001 ]
      - [ 2.11686082e-002, 8.84923816e-001, 6.33032978e-001 ]
      - [ 2.10241135e-002, 9.06648755e-001, 3.66220415e-001 ]
      - [ 9.06710047e-003, 8.74113798e-001, 9.45620179e-001 ]
      - [ 2.62620784e-002, 8.74022067e-001, 5.72797000e-001 ]
      - [ 4.33306247e-002, 9.06175911e-001, 6.13909543e-001 ]
      - [ 4.30958197e-002, 8.43259037e-001, 6.90776467e-001 ]
      - [ 2.73819193e-002, 8.84173930e-001, 6.53181374e-001 ]
      - [ 4.27526422e-002, 8.67775142e-001, 5.45397997e-001 ]
      - [ 3.50763127e-002, 9.03454065e-001, 6.67447865e-001 ]
      - [ 7.14892074e-002, 9.06028628e-001, 6.95480049e-001 ]
      - [ 5.34995049e-002, 9.05362248e-001, 7.85921693e-001 ]
      - [ 6.75336421e-002, 9.14204597e-001, 6.92564189e-001 ]
      - [ 2.93506719e-002, 9.34558392e-001, 7.02228963e-001 ]
      - [ 6.89063519e-002, 8.89870882e-001, 7.76287377e-001 ]
      - [ 4.39086072e-002, 8.81925404e-001, 7.46765673e-001 ]
      - [ 6.39754385e-002, 9.06200409e-001, 6.80942774e-001 ]
      - [ 5.79427443e-002, 8.37591231e-001, 6.88284457e-001 ]
      - [ 4.32222523e-002, 8.66364241e-001, 6.21522188e-001 ]
      - [ 5.85929751e-002, 9.09890056e-001, 6.13652825e-001 ]
      - [ 5.34091927e-002, 9.18663621e-001, 5.59270740e-001 ]
      - [ 3.73340547e-002, 9.01234865e-001, 6.67088389e-001 ]
      - [ 6.33974522e-002, 8.73955369e-001, 6.26659095e-001 ]
      - [ 5.21087311e-002, 8.80227268e-001, 6.54754043e-001 ]
      - [ 3.70631255e-002, 8.78802955e-001, 7.07445145e-001 ]
      - [ 5.38607426e-002, 8.89452934e-001, 6.22338116e-001 ]
      - [ 3.78397889e-002, 8.69183779e-001, 6.40493214e-001 ]
      - [ 6.58358186e-002, 9.17596996e-001, 6.18703306e-001 ]
      - [ 2.58647166e-002, 8.90706539e-001, 7.49815345e-001 ]
      - [ 2.35166624e-002, 8.36271226e-001, 8.53887498e-001 ]
      - [ 5.94599470e-002, 9.11216199e-001, 5.79089761e-001 ]
      - [ 3.61600295e-002, 8.54631186e-001, 7.94041097e-001 ]
      - [ 1.53960079e-001, 3.79049331e-001, 7.11689770e-001 ]
      - [ 2.55757254e-002, 9.40719128e-001, 7.28478611e-001 ]
      - [ 5.99656813e-002, 8.81227255e-001, 5.78594625e-001 ]
      - [ 5.71118928e-002, 8.94889772e-001, 6.63486779e-001 ]
      - [ 1.11442246e-002, 9.10599887e-001, 3.94965947e-001 ]
      - [ 1.82786956e-002, 9.01868403e-001, 5.70270896e-001 ]
      - [ 1.93082280e-002, 9.32678163e-001, 5.03267884e-001 ]
      - [ 1.64724998e-002, 8.65138113e-001, 7.67639458e-001 ]
      - [ 6.85451105e-002, 7.87236691e-001, 5.81452370e-001 ]
      - [ 1.34200305e-002, 8.78666282e-001, 6.77945912e-001 ]
      - [ 4.80989777e-002, 8.74054372e-001, 6.58862770e-001 ]
      - [ 1.58764571e-002, 8.79357517e-001, 6.76587105e-001 ]
      - [ 3.19877192e-002, 8.83859634e-001, 6.75852954e-001 ]
      - [ 7.99060762e-002, 8.57326210e-001, 7.40202665e-001 ]
      - [ 5.66784069e-002, 7.89815485e-001, 5.70317447e-001 ]
      - [ 1.43050663e-002, 8.82996500e-001, 7.39405096e-001 ]
      - [ 3.09401248e-002, 8.77220988e-001, 6.74533546e-001 ]
      - [ 2.03919448e-002, 8.96333933e-001, 6.46852911e-001 ]
      - [ 1.03314370e-002, 9.29847598e-001, 6.59388363e-001 ]
      - [ 1.18125165e-002, 8.68923783e-001, 8.22388172e-001 ]
      - [ 4.39989157e-002, 9.23481584e-001, 6.90763533e-001 ]
      - [ 3.36494185e-002, 9.12004054e-001, 9.64755952e-001 ]
      - [ 1.16680209e-002, 8.90108168e-001, 7.75547922e-001 ]
      - [ 4.06213328e-002, 9.10879612e-001, 7.44070411e-001 ]
      - [ 5.07540852e-002, 8.98266673e-001, 6.07758939e-001 ]
      - [ 2.17465907e-002, 8.79618168e-001, 6.90384686e-001 ]
      - [ 1.82245094e-002, 8.55584204e-001, 5.85493922e-001 ]
      - [ 1.54429693e-002, 9.59126949e-001, 8.22308004e-001 ]
      - [ 3.07775661e-002, 8.82303298e-001, 7.00581729e-001 ]
      - [ 3.00189648e-002, 9.08488333e-001, 6.96844876e-001 ]
      - [ 2.19633337e-002, 8.32223415e-001, 6.91830039e-001 ]
      - [ 6.49869069e-002, 8.43326449e-001, 9.77448642e-001 ]
      - [ 1.83690060e-002, 9.20913517e-001, 6.84249699e-001 ]
      - [ 1.48649868e-002, 8.35624874e-001, 5.43960929e-001 ]
      - [ 7.06583560e-002, 8.88422012e-001, 6.70233846e-001 ]
      - [ 3.40106562e-002, 8.41803968e-001, 5.71068466e-001 ]
      - [ 2.39320863e-002, 8.71086836e-001, 6.22451007e-001 ]
      - [ 2.56660338e-002, 9.08131421e-001, 3.88825983e-001 ]
      - [ 2.88268756e-002, 9.13946152e-001, 6.48945391e-001 ]
      - [ 2.17104666e-002, 8.67899239e-001, 7.45844305e-001 ]
      - [ 3.77856046e-002, 8.71578872e-001, 6.09015048e-001 ]
      - [ 3.50401886e-002, 7.95040727e-001, 5.28576434e-001 ]
      - [ 2.74902917e-002, 8.10881197e-001, 6.98821247e-001 ]
      - [ 2.07351223e-002, 8.23897481e-001, 6.03434384e-001 ]
      - [ 3.82190906e-002, 8.96176398e-001, 6.81383371e-001 ]
      - [ 8.00325125e-002, 8.28552961e-001, 6.28324687e-001 ]
      - [ 5.87013438e-002, 8.26100290e-001, 6.69788063e-001 ]
      - [ 2.30289903e-002, 8.82971227e-001, 6.21847928e-001 ]
      - [ 2.25955024e-002, 9.13047612e-001, 6.00497901e-001 ]
      - [ 2.04100069e-002, 8.09230089e-001, 8.08655798e-001 ]
      - [ 2.73096729e-002, 9.36791539e-001, 6.66221976e-001 ]
      - [ 2.34624762e-002, 8.35979044e-001, 6.34612560e-001 ]
      - [ 1.89469885e-002, 8.86076331e-001, 7.95393407e-001 ]
      - [ 4.77377400e-002, 8.73405933e-001, 7.37709463e-001 ]
      - [ 3.97182330e-002, 8.75215471e-001, 5.66241384e-001 ]
      - [ 1.40521992e-002, 8.27971518e-001, 5.88076413e-001 ]
      - [ 1.86941214e-002, 9.10877943e-001, 5.46565056e-001 ]
      - [ 4.50645722e-002, 8.45181108e-001, 8.62239778e-001 ]
      - [ 2.68581230e-002, 8.76007795e-001, 6.75797760e-001 ]
      - [ 2.64968835e-002, 8.62715065e-001, 7.59148479e-001 ]
      - [ 4.17231098e-002, 8.95033240e-001, 4.75454986e-001 ]
      - [ 2.34805383e-002, 8.63973200e-001, 9.95472074e-001 ]
      - [ 2.55396012e-002, 8.38026464e-001, 9.89631534e-001 ]
      - [ 3.93208712e-002, 8.57961714e-001, 6.14785790e-001 ]
      - [ 2.56299097e-002, 9.23549891e-001, 5.58599114e-001 ]
      - [ 2.58466545e-002, 9.15310681e-001, 5.96720994e-001 ]
      - [ 3.45525146e-002, 8.57017398e-001, 6.86545014e-001 ]
      - [ 3.94111797e-002, 8.63872349e-001, 5.86615205e-001 ]
      - [ 2.60272734e-002, 8.48023534e-001, 5.10773480e-001 ]
      - [ 2.17646528e-002, 8.51438522e-001, 5.86086035e-001 ]
      - [ 2.14756615e-002, 8.86775255e-001, 3.48009169e-001 ]
      - [ 2.11686082e-002, 8.77619863e-001, 9.61175025e-001 ]
      - [ 2.27219369e-002, 9.13530886e-001, 6.60589159e-001 ]
      - [ 6.24943562e-002, 8.62297118e-001, 5.30196309e-001 ]
      - [ 5.86290993e-002, 8.69380414e-001, 5.51092327e-001 ]
      - [ 6.20066822e-002, 8.61720741e-001, 6.70994818e-001 ]
      - [ 6.30000904e-002, 8.42333794e-001, 6.28653765e-001 ]
      - [ 4.24094647e-002, 8.82980108e-001, 7.42940784e-001 ]
      - [ 3.22225243e-002, 8.80988896e-001, 5.18489897e-001 ]
      - [ 5.16391210e-002, 8.42337191e-001, 3.70361894e-001 ]
      - [ 3.67921963e-002, 8.67698789e-001, 6.61966443e-001 ]
      - [ 6.71182126e-002, 9.10906732e-001, 6.44358814e-001 ]
      - [ 2.70206816e-002, 9.12017703e-001, 5.93869865e-001 ]
      - [ 4.43420932e-002, 8.81567121e-001, 5.54126680e-001 ]
      - [ 3.11929919e-002, 8.64945292e-001, 6.13444269e-001 ]
      - [ 4.48658913e-002, 8.10829163e-001, 4.79655862e-001 ]
      - [ 3.56723554e-002, 9.04754817e-001, 6.74193859e-001 ]
      - [ 4.09283862e-002, 9.28172886e-001, 6.24043941e-001 ]
      - [ 1.81161389e-002, 8.90515983e-001, 5.57413340e-001 ]
      - [ 7.65646175e-002, 8.74097526e-001, 4.92233634e-001 ]
      - [ 5.45290336e-002, 8.52337539e-001, 6.73732758e-001 ]
      - [ 4.07477655e-002, 8.66286635e-001, 5.59252262e-001 ]
      - [ 7.23381191e-002, 8.66748452e-001, 6.67388201e-001 ]
      - [ 2.68219989e-002, 9.29861546e-001, 5.71139634e-001 ]
      - [ 2.90255584e-002, 8.85333478e-001, 5.69368720e-001 ]
      - [ 5.30660152e-002, 9.20332074e-001, 6.17531359e-001 ]
      - [ 3.27463187e-002, 8.26646626e-001, 5.55937231e-001 ]
      - [ 4.24455889e-002, 9.14739788e-001, 5.91938436e-001 ]
      - [ 3.84719595e-002, 8.89468133e-001, 4.64887321e-001 ]
      - [ 1.71407927e-002, 9.27838445e-001, 5.15957057e-001 ]
      - [ 9.73539203e-002, 9.16422844e-001, 9.92675364e-001 ]
      - [ 2.10241135e-002, 8.88519764e-001, 4.02722299e-001 ]
      - [ 4.20482270e-002, 9.02891517e-001, 8.21925104e-001 ]
   decision_functions:
      -
         sv_count: 430
         rho: -1.5213952723531294e+000
         alpha: [ 1., 1., 1., 1., 5.0730113529615921e-002, 1., 1., 1.,
             1., 1., 1., 1., 1., 1., 1., 1., 1., 1., 1., 1., 1., 1., 1.,
             1., 1., 1., 1., 1., 1., 1., 1., 1., 1., 1., 1., 1., 1., 1.,
             1., 1., 1., 1., 1., 1., 1., 1., 1., 1., 1., 1., 1., 1., 1.,
             1., 1., 1., 1., 1., 1., 1., 1., 1., 1., 1., 1., 1., 1., 1.,
             1., 1., 1., 1., 1., 1., 1., 1., 1., 1., 1., 1., 1., 1., 1.,
             1., 1., 1., 1., 1., 1., 1., 1., 1., 1., 1., 1., 1., 1., 1.,
             1., 1., 1., 1., 1., 1., 1., 1., 1., 1., 1., 1., 1., 1., 1.,
             1., 1., 1., 1., 1., 1., 1., 1., 1., 1., 1., 1., 1., 1., 1.,
             1., 1., 1., 1., 1., 1., 1., 1., 1., 1., 1., 1., 1., 1., 1.,
             1., 1., 1., 1., 1., 2.7420948234907749e-001, 1., 1., 1., 1.,
             1., 1., 1., 1., 1., 9.0687456721551762e-002, 1., 1., 1., 1.,
             1., 1., 1., 1., 1., 1., 1., 1., 1., 1., 1., 1., 1., 1., 1.,
             1., 1., 1., 1., 1., 1., 1., 1., 1., 1., 1., 1., 1., 1., 1.,
             1., 1., 1., 1., 1., 1., 1., 1., 1., 1., 1., 1., 1., 1., 1.,
             1., 1., 1., 1., 1., 1., 1., 1., -1., -1., -1., -1., -1.,
             -1., -1., -1., -1., -1., -1., -1., -1., -1., -1., -1., -1.,
             -1., -1., -1., -1., -1., -1., -1., -1., -1., -1., -1., -1.,
             -1., -1., -1., -1., -1., -1., -1., -1., -1., -1., -1., -1.,
             -1., -1., -1., -1., -1., -1., -1., -1., -1., -1., -1., -1.,
             -1., -1., -1., -1., -1., -1., -1., -1., -1., -1., -1., -1.,
             -1., -1., -1., -1., -1., -1., -1., -1., -1., -1., -1., -1.,
             -1., -1., -1., -1., -1., -1., -1., -1., -1., -1., -1., -1.,
             -1., -1., -1., -1., -1., -1., -1., -1., -1., -1., -1., -1.,
             -1., -1., -1., -1., -1., -4.1562705260024513e-001, -1., -1.,
             -1., -1., -1., -1., -1., -1., -1., -1., -1., -1., -1., -1.,
             -1., -1., -1., -1., -1., -1., -1., -1., -1., -1., -1., -1.,
             -1., -1., -1., -1., -1., -1., -1., -1., -1., -1., -1., -1.,
             -1., -1., -1., -1., -1., -1., -1., -1., -1., -1., -1., -1.,
             -1., -1., -1., -1., -1., -1., -1., -1., -1., -1., -1., -1.,
             -1., -1., -1., -1., -1., -1., -1., -1., -1., -1., -1., -1.,
             -1., -1., -1., -1., -1., -1., -1., -1., -1., -1., -1., -1.,
             -1., -1., -1., -1., -1., -1., -1., -1., -1., -1., -1., -1.,
             -1., -1., -1., -1., -1., -1., -1., -1., -1. ]
         index: [ 0, 1, 2, 3, 4, 5, 6, 7, 8, 9, 10, 11, 12, 13, 14, 15,
             16, 17, 18, 19, 20, 21, 22, 23, 24, 25, 26, 27, 28, 29, 30,
             31, 32, 33, 34, 35, 36, 37, 38, 39, 40, 41, 42, 43, 44, 45,
             46, 47, 48, 49, 50, 51, 52, 53, 54, 55, 56, 57, 58, 59, 60,
             61, 62, 63, 64, 65, 66, 67, 68, 69, 70, 71, 72, 73, 74, 75,
             76, 77, 78, 79, 80, 81, 82, 83, 84, 85, 86, 87, 88, 89, 90,
             91, 92, 93, 94, 95, 96, 97, 98, 99, 100, 101, 102, 103, 104,
             105, 106, 107, 108, 109, 110, 111, 112, 113, 114, 115, 116,
             117, 118, 119, 120, 121, 122, 123, 124, 125, 126, 127, 128,
             129, 130, 131, 132, 133, 134, 135, 136, 137, 138, 139, 140,
             141, 142, 143, 144, 145, 146, 147, 148, 149, 150, 151, 152,
             153, 154, 155, 156, 157, 158, 159, 160, 161, 162, 163, 164,
             165, 166, 167, 168, 169, 170, 171, 172, 173, 174, 175, 176,
             177, 178, 179, 180, 181, 182, 183, 184, 185, 186, 187, 188,
             189, 190, 191, 192, 193, 194, 195, 196, 197, 198, 199, 200,
             201, 202, 203, 204, 205, 206, 207, 208, 209, 210, 211, 212,
             213, 214, 215, 216, 217, 218, 219, 220, 221, 222, 223, 224,
             225, 226, 227, 228, 229, 230, 231, 232, 233, 234, 235, 236,
             237, 238, 239, 240, 241, 242, 243, 244, 245, 246, 247, 248,
             249, 250, 251, 252, 253, 254, 255, 256, 257, 258, 259, 260,
             261, 262, 263, 264, 265, 266, 267, 268, 269, 270, 271, 272,
             273, 274, 275, 276, 277, 278, 279, 280, 281, 282, 283, 284,
             285, 286, 287, 288, 289, 290, 291, 292, 293, 294, 295, 296,
             297, 298, 299, 300, 301, 302, 303, 304, 305, 306, 307, 308,
             309, 310, 311, 312, 313, 314, 315, 316, 317, 318, 319, 320,
             321, 322, 323, 324, 325, 326, 327, 328, 329, 330, 331, 332,
             333, 334, 335, 336, 337, 338, 339, 340, 341, 342, 343, 344,
             345, 346, 347, 348, 349, 350, 351, 352, 353, 354, 355, 356,
             357, 358, 359, 360, 361, 362, 363, 364, 365, 366, 367, 368,
             369, 370, 371, 372, 373, 374, 375, 376, 377, 378, 379, 380,
             381, 382, 383, 384, 385, 386, 387, 388, 389, 390, 391, 392,
             393, 394, 395, 396, 397, 398, 399, 400, 401, 402, 403, 404,
             405, 406, 407, 408, 409, 410, 411, 412, 413, 414, 415, 416,
             417, 418, 419, 420, 421, 422, 423, 424, 425, 426, 427, 428,
             429 ]
