%YAML:1.0
my_svm: !!opencv-ml-svm
   svm_type: C_SVC
   kernel: { type:RBF, gamma:5.0625000000000009e-001 }
   C: 3.1250000000000000e+002
   term_criteria: { epsilon:1.1920928955078125e-007, iterations:1000 }
   var_all: 3
   var_count: 3
   class_count: 2
   class_labels: !!opencv-matrix
      rows: 1
      cols: 2
      dt: i
      data: [ 0, 1 ]
   sv_total: 103
   support_vectors:
      - [ 3.61239049e-003, 9.18319941e-001, 9.74537909e-001 ]
      - [ 1.14332158e-002, 9.11484659e-001, 9.87527192e-001 ]
      - [ 4.15424904e-004, 1., 5.27735233e-001 ]
      - [ 3.32339923e-003, 8.98588300e-001, 9.98913586e-001 ]
      - [ 1.23904990e-002, 8.92900050e-001, 6.88512504e-001 ]
      - [ 9.75345448e-003, 9.20290053e-001, 6.74525142e-001 ]
      - [ 4.10006335e-003, 8.33168268e-001, 9.93916452e-001 ]
      - [ 9.93407425e-003, 8.74916852e-001, 5.65791190e-001 ]
      - [ 1.40883233e-002, 9.11688924e-001, 9.79091942e-001 ]
      - [ 2.22703870e-002, 7.73162186e-001, 6.74881041e-001 ]
      - [ 1.34019684e-002, 8.93080652e-001, 7.41036952e-001 ]
      - [ 7.40540074e-003, 8.37922633e-001, 9.68940198e-001 ]
      - [ 1.35464640e-002, 8.51057112e-001, 6.18209481e-001 ]
      - [ 2.34462202e-001, 3.48950446e-001, 5.71422756e-001 ]
      - [ 5.14765643e-003, 8.75610590e-001, 9.80339527e-001 ]
      - [ 1.35103408e-002, 8.78847718e-001, 7.53355503e-001 ]
      - [ 1.42870042e-002, 8.70350957e-001, 5.46845675e-001 ]
      - [ 1.70324221e-002, 8.12714875e-001, 6.27304673e-001 ]
      - [ 1.62557571e-003, 8.72597635e-001, 3.24852496e-001 ]
      - [ 1.45398714e-002, 9.14902866e-001, 5.54044724e-001 ]
      - [ 1.78632718e-002, 8.21764171e-001, 7.14243352e-001 ]
      - [ 1.62738189e-002, 8.32131445e-001, 5.68697214e-001 ]
      - [ 6.14106376e-003, 8.31002057e-001, 9.57452059e-001 ]
      - [ 4.06393921e-003, 9.45065022e-001, 9.91102040e-001 ]
      - [ 9.03025389e-001, 1.55774802e-001, 9.59782124e-001 ]
      - [ 3.57626658e-003, 9.08232749e-001, 3.32182854e-001 ]
      - [ 8.10981635e-003, 9.36491787e-001, 8.73534441e-001 ]
      - [ 6.41199294e-003, 8.94778192e-001, 9.77039278e-001 ]
      - [ 8.21818877e-003, 8.78905118e-001, 8.90546739e-001 ]
      - [ 1.08371712e-002, 8.75373304e-001, 7.40091860e-001 ]
      - [ 2.45642546e-003, 7.53181696e-001, 9.90797460e-001 ]
      - [ 1.30046057e-002, 8.76308262e-001, 4.90463197e-001 ]
      - [ 7.69439153e-003, 9.48194623e-001, 7.00468123e-001 ]
      - [ 4.78641735e-003, 9.30291831e-001, 9.72736239e-001 ]
      - [ 1.36909597e-002, 8.61300051e-001, 7.32714593e-001 ]
      - [ 8.70586094e-003, 9.28618073e-001, 6.36339188e-001 ]
      - [ 1.23363137e-002, 8.95385563e-001, 4.48550105e-001 ]
      - [ 1.58945173e-002, 8.38754475e-001, 6.81940794e-001 ]
      - [ 8.88648070e-003, 8.54592264e-001, 8.43641520e-001 ]
      - [ 5.43664768e-003, 9.68479693e-001, 2.41995037e-001 ]
      - [ 8.94066691e-003, 9.06781495e-001, 5.88256717e-001 ]
      - [ 1.25349946e-002, 8.81293595e-001, 5.81685007e-001 ]
      - [ 6.26749732e-003, 8.41265261e-001, 9.61602807e-001 ]
      - [ 1.32755348e-002, 8.90197158e-001, 4.26229060e-001 ]
      - [ 1.09997289e-002, 8.72847319e-001, 6.41695917e-001 ]
      - [ 8.65167566e-003, 7.97244966e-001, 9.75091994e-001 ]
      - [ 3.54014267e-003, 8.98145497e-001, 4.42167461e-001 ]
      - [ 1.47385532e-002, 8.82469356e-001, 6.72434330e-001 ]
      - [ 1.65628102e-002, 8.19491088e-001, 5.62699318e-001 ]
      - [ 1.54790934e-002, 8.86745632e-001, 6.23062968e-001 ]
      - [ 8.18206463e-003, 8.20899308e-001, 1.75068110e-001 ]
      - [ 1.56777743e-002, 7.99792409e-001, 5.58734238e-001 ]
      - [ 1.41063845e-002, 9.06405270e-001, 6.80253565e-001 ]
      - [ 2.72735488e-003, 9.50807691e-001, 5.00631928e-001 ]
      - [ 1.47024291e-002, 8.88835609e-001, 6.60328448e-001 ]
      - [ 2.34624762e-002, 8.35979044e-001, 6.34612560e-001 ]
      - [ 1.53960079e-001, 3.79049331e-001, 7.11689770e-001 ]
      - [ 1.82786956e-002, 9.01868403e-001, 5.70270896e-001 ]
      - [ 1.78813338e-002, 8.79857719e-001, 7.89537251e-001 ]
      - [ 2.56660338e-002, 9.08131421e-001, 3.88825983e-001 ]
      - [ 2.28483696e-002, 8.49025786e-001, 9.72361207e-001 ]
      - [ 3.70450653e-002, 8.93382668e-001, 9.97569919e-001 ]
      - [ 1.86941214e-002, 9.10877943e-001, 5.46565056e-001 ]
      - [ 2.10241135e-002, 8.88519764e-001, 4.02722299e-001 ]
      - [ 1.89469885e-002, 8.86076331e-001, 7.95393407e-001 ]
      - [ 1.85315628e-002, 9.44501758e-001, 9.87015843e-001 ]
      - [ 2.25413162e-002, 9.05382395e-001, 9.62737799e-001 ]
      - [ 2.60272734e-002, 8.48023534e-001, 5.10773480e-001 ]
      - [ 1.18125165e-002, 8.68923783e-001, 8.22388172e-001 ]
      - [ 1.81161389e-002, 8.90515983e-001, 5.57413340e-001 ]
      - [ 2.74902917e-002, 8.10881197e-001, 6.98821247e-001 ]
      - [ 1.43050663e-002, 8.82996500e-001, 7.39405096e-001 ]
      - [ 2.01571397e-002, 8.79434347e-001, 9.54760313e-001 ]
      - [ 1.34200305e-002, 8.78666282e-001, 6.77945912e-001 ]
      - [ 2.05906257e-002, 8.85661185e-001, 9.78855193e-001 ]
      - [ 1.64724998e-002, 8.65138113e-001, 7.67639458e-001 ]
      - [ 2.08796170e-002, 9.25959766e-001, 4.29734200e-001 ]
      - [ 2.92603634e-002, 9.52536225e-001, 4.44285303e-001 ]
      - [ 1.03314370e-002, 9.29847598e-001, 6.59388363e-001 ]
      - [ 2.04100069e-002, 8.09230089e-001, 8.08655798e-001 ]
      - [ 1.11442246e-002, 9.10599887e-001, 3.94965947e-001 ]
      - [ 1.58764571e-002, 8.79357517e-001, 6.76587105e-001 ]
      - [ 3.94111797e-002, 8.39152396e-001, 3.99557501e-001 ]
      - [ 1.54429693e-002, 9.59126949e-001, 8.22308004e-001 ]
      - [ 1.88566782e-002, 9.42291439e-001, 9.86126482e-001 ]
      - [ 1.16680209e-002, 8.90108168e-001, 7.75547922e-001 ]
      - [ 1.54429693e-002, 8.84419918e-001, 6.45471334e-001 ]
      - [ 1.90734211e-002, 8.36245358e-001, 9.12848115e-001 ]
      - [ 2.19633337e-002, 8.32223415e-001, 6.91830039e-001 ]
      - [ 2.17646528e-002, 8.51438522e-001, 5.86086035e-001 ]
      - [ 1.93082280e-002, 9.32678163e-001, 5.03267884e-001 ]
      - [ 1.71407927e-002, 9.27838445e-001, 5.15957057e-001 ]
      - [ 2.10241135e-002, 9.06648755e-001, 3.66220415e-001 ]
      - [ 2.07351223e-002, 8.23897481e-001, 6.03434384e-001 ]
      - [ 1.40521992e-002, 8.27971518e-001, 5.88076413e-001 ]
      - [ 1.83690060e-002, 9.20913517e-001, 6.84249699e-001 ]
      - [ 2.14756615e-002, 8.86775255e-001, 3.48009169e-001 ]
      - [ 1.48649868e-002, 8.35624874e-001, 5.43960929e-001 ]
      - [ 2.55396012e-002, 8.38026464e-001, 9.89631534e-001 ]
      - [ 2.11686082e-002, 8.77619863e-001, 9.61175025e-001 ]
      - [ 9.06710047e-003, 8.74113798e-001, 9.45620179e-001 ]
      - [ 1.82245094e-002, 8.55584204e-001, 5.85493922e-001 ]
      - [ 2.34805383e-002, 8.63973200e-001, 9.95472074e-001 ]
   decision_functions:
      -
         sv_count: 103
         rho: -1.9987957390791042e+001
         alpha: [ 8.3778843080856511e+000, 3.1250000000000000e+002,
             2.7011110496976676e+002, 3.1250000000000000e+002,
             3.1250000000000000e+002, 3.1250000000000000e+002,
             2.5805757353921462e+002, 2.2700822991590708e+000,
             3.1250000000000000e+002, 3.1250000000000000e+002,
             3.1250000000000000e+002, 3.1250000000000000e+002,
             3.1250000000000000e+002, 3.1250000000000000e+002,
             1.7545319169950935e+002, 3.1250000000000000e+002,
             3.1250000000000000e+002, 3.1250000000000000e+002,
             1.7005832609953623e+002, 3.1250000000000000e+002,
             3.1250000000000000e+002, 3.1250000000000000e+002,
             1.0404784598041944e+001, 3.1250000000000000e+002,
             3.1676161250399911e+001, 3.1250000000000000e+002,
             3.1250000000000000e+002, 3.1250000000000000e+002,
             2.4377824250855943e+002, 3.1250000000000000e+002,
             5.9846965748713835e+001, 3.1250000000000000e+002,
             3.1250000000000000e+002, 1.8944070271638398e+002,
             3.1250000000000000e+002, 3.1250000000000000e+002,
             3.1250000000000000e+002, 3.1250000000000000e+002,
             4.0526256328587650e+001, 3.1250000000000000e+002,
             1.2499633290966864e+002, 3.1250000000000000e+002,
             8.3552521925921994e+001, 3.1250000000000000e+002,
             3.1250000000000000e+002, 3.1250000000000000e+002,
             4.3258922250523987e+001, 3.1250000000000000e+002,
             3.1250000000000000e+002, 3.1250000000000000e+002,
             3.0302272446118761e+000, 5.4983973974158197e+001,
             3.1250000000000000e+002, 3.2667985893175810e+001,
             3.1250000000000000e+002, -3.1250000000000000e+002,
             -3.1250000000000000e+002, -3.1250000000000000e+002,
             -3.1250000000000000e+002, -3.1250000000000000e+002,
             -2.7531706546936647e+002, -6.7359961579951772e+001,
             -2.2553469653077923e+002, -3.1250000000000000e+002,
             -3.1250000000000000e+002, -3.1250000000000000e+002,
             -1.3425036305602487e+002, -5.3647524311627876e+001,
             -3.1250000000000000e+002, -3.1250000000000000e+002,
             -6.8763586603529660e+001, -3.1250000000000000e+002,
             -3.1250000000000000e+002, -3.1250000000000000e+002,
             -3.1250000000000000e+002, -3.1250000000000000e+002,
             -3.1250000000000000e+002, -2.3232315115987895e+001,
             -3.1250000000000000e+002, -3.1250000000000000e+002,
             -3.1250000000000000e+002, -3.1250000000000000e+002,
             -2.0493272416946516e+002, -3.1250000000000000e+002,
             -3.1250000000000000e+002, -3.1250000000000000e+002,
             -3.1250000000000000e+002, -3.1250000000000000e+002,
             -3.1250000000000000e+002, -3.1250000000000000e+002,
             -2.0486192030707721e+002, -3.1250000000000000e+002,
             -3.1250000000000000e+002, -3.1250000000000000e+002,
             -3.1250000000000000e+002, -3.1250000000000000e+002,
             -3.1250000000000000e+002, -3.1250000000000000e+002,
             -3.1250000000000000e+002, -2.3209108312020891e+002,
             -3.1250000000000000e+002, -3.1250000000000000e+002,
             -3.1250000000000000e+002 ]
         index: [ 0, 1, 2, 3, 4, 5, 6, 7, 8, 9, 10, 11, 12, 13, 14, 15,
             16, 17, 18, 19, 20, 21, 22, 23, 24, 25, 26, 27, 28, 29, 30,
             31, 32, 33, 34, 35, 36, 37, 38, 39, 40, 41, 42, 43, 44, 45,
             46, 47, 48, 49, 50, 51, 52, 53, 54, 55, 56, 57, 58, 59, 60,
             61, 62, 63, 64, 65, 66, 67, 68, 69, 70, 71, 72, 73, 74, 75,
             76, 77, 78, 79, 80, 81, 82, 83, 84, 85, 86, 87, 88, 89, 90,
             91, 92, 93, 94, 95, 96, 97, 98, 99, 100, 101, 102 ]
